<?xml version="1.0"?>
<opencv_storage>
<myfacedetector type_id="opencv-haar-classifier">
  <size>
    24 24</size>
  <stages>
    <_>
      <trees>
        <_>
          <_>
            <feature>
              <rects>
                <_>
                  1 4 12 13 -1.</_>
                <_>
                  4 4 6 13 2.</_></rects>
              <tilted>0</tilted></feature>
            <threshold>0.1159904971718788</threshold>
            <left_val>-0.8071405887603760</left_val>
            <right_val>0.9374986886978149</right_val></_></_>
        <_>
          <_>
            <feature>
              <rects>
                <_>
                  1 0 22 6 -1.</_>
                <_>
                  1 2 22 2 3.</_></rects>
              <tilted>0</tilted></feature>
            <threshold>-0.0263833906501532</threshold>
            <left_val>0.7681831717491150</left_val>
            <right_val>-0.8020666241645813</right_val></_></_>
        <_>
          <_>
            <feature>
              <rects>
                <_>
                  6 8 12 1 -1.</_>
                <_>
                  10 8 4 1 3.</_></rects>
              <tilted>0</tilted></feature>
            <threshold>-9.2015489935874939e-003</threshold>
            <left_val>0.7273675203323364</left_val>
            <right_val>-0.6606714129447937</right_val></_></_></trees>
      <stage_threshold>-0.8818396925926209</stage_threshold>
      <parent>-1</parent>
      <next>-1</next></_>
    <_>
      <trees>
        <_>
          <_>
            <feature>
              <rects>
                <_>
                  10 8 8 8 -1.</_>
                <_>
                  10 8 4 8 2.</_></rects>
              <tilted>1</tilted></feature>
            <threshold>0.1304073035717011</threshold>
            <left_val>-0.7918764948844910</left_val>
            <right_val>0.9034044742584229</right_val></_></_>
        <_>
          <_>
            <feature>
              <rects>
                <_>
                  1 18 22 6 -1.</_>
                <_>
                  1 20 22 2 3.</_></rects>
              <tilted>0</tilted></feature>
            <threshold>-0.0242245309054852</threshold>
            <left_val>0.6600595712661743</left_val>
            <right_val>-0.7590987086296082</right_val></_></_>
        <_>
          <_>
            <feature>
              <rects>
                <_>
                  0 0 8 12 -1.</_>
                <_>
                  0 0 4 6 2.</_>
                <_>
                  4 6 4 6 2.</_></rects>
              <tilted>0</tilted></feature>
            <threshold>0.0397819615900517</threshold>
            <left_val>-0.5644825100898743</left_val>
            <right_val>0.7846133112907410</right_val></_></_></trees>
      <stage_threshold>-0.7663620114326477</stage_threshold>
      <parent>0</parent>
      <next>-1</next></_>
    <_>
      <trees>
        <_>
          <_>
            <feature>
              <rects>
                <_>
                  5 6 10 15 -1.</_>
                <_>
                  10 6 5 15 2.</_></rects>
              <tilted>0</tilted></feature>
            <threshold>-0.1683409065008164</threshold>
            <left_val>0.9408174753189087</left_val>
            <right_val>-0.7774847745895386</right_val></_></_>
        <_>
          <_>
            <feature>
              <rects>
                <_>
                  8 5 9 16 -1.</_>
                <_>
                  11 5 3 16 3.</_></rects>
              <tilted>0</tilted></feature>
            <threshold>-0.0507103912532330</threshold>
            <left_val>0.5625358223915100</left_val>
            <right_val>-0.4398018121719360</right_val></_></_>
        <_>
          <_>
            <feature>
              <rects>
                <_>
                  0 3 4 20 -1.</_>
                <_>
                  1 3 2 20 2.</_></rects>
              <tilted>0</tilted></feature>
            <threshold>-0.0145300300791860</threshold>
            <left_val>0.7377879023551941</left_val>
            <right_val>-0.4536010026931763</right_val></_></_>
        <_>
          <_>
            <feature>
              <rects>
                <_>
                  3 3 18 20 -1.</_>
                <_>
                  3 8 18 10 2.</_></rects>
              <tilted>0</tilted></feature>
            <threshold>0.1085392981767654</threshold>
            <left_val>-0.6624528169631958</left_val>
            <right_val>0.4784416854381561</right_val></_></_>
        <_>
          <_>
            <feature>
              <rects>
                <_>
                  0 0 6 5 -1.</_>
                <_>
                  2 0 2 5 3.</_></rects>
              <tilted>0</tilted></feature>
            <threshold>-3.0026950407773256e-003</threshold>
            <left_val>0.4524109959602356</left_val>
            <right_val>-0.6564345955848694</right_val></_></_>
        <_>
          <_>
            <feature>
              <rects>
                <_>
                  9 14 9 5 -1.</_>
                <_>
                  12 14 3 5 3.</_></rects>
              <tilted>0</tilted></feature>
            <threshold>0.0386768803000450</threshold>
            <left_val>-0.1485577970743179</left_val>
            <right_val>0.8153942823410034</right_val></_></_></trees>
      <stage_threshold>-1.4200299978256226</stage_threshold>
      <parent>1</parent>
      <next>-1</next></_>
    <_>
      <trees>
        <_>
          <_>
            <feature>
              <rects>
                <_>
                  4 3 12 4 -1.</_>
                <_>
                  7 6 6 4 2.</_></rects>
              <tilted>1</tilted></feature>
            <threshold>0.1268949061632156</threshold>
            <left_val>-0.7206882238388062</left_val>
            <right_val>0.8926839232444763</right_val></_></_>
        <_>
          <_>
            <feature>
              <rects>
                <_>
                  7 0 17 2 -1.</_>
                <_>
                  7 1 17 1 2.</_></rects>
              <tilted>0</tilted></feature>
            <threshold>-3.4105700906366110e-003</threshold>
            <left_val>0.4607698917388916</left_val>
            <right_val>-0.6632146835327148</right_val></_></_>
        <_>
          <_>
            <feature>
              <rects>
                <_>
                  7 4 9 15 -1.</_>
                <_>
                  10 4 3 15 3.</_></rects>
              <tilted>0</tilted></feature>
            <threshold>-0.0809728130698204</threshold>
            <left_val>0.5739197134971619</left_val>
            <right_val>-0.5949158072471619</right_val></_></_>
        <_>
          <_>
            <feature>
              <rects>
                <_>
                  6 3 13 4 -1.</_>
                <_>
                  6 5 13 2 2.</_></rects>
              <tilted>0</tilted></feature>
            <threshold>8.4613617509603500e-003</threshold>
            <left_val>-0.7069296836853027</left_val>
            <right_val>0.3744519054889679</right_val></_></_>
        <_>
          <_>
            <feature>
              <rects>
                <_>
                  4 9 16 7 -1.</_>
                <_>
                  12 9 8 7 2.</_></rects>
              <tilted>0</tilted></feature>
            <threshold>-0.1933598965406418</threshold>
            <left_val>0.9119961857795715</left_val>
            <right_val>-0.3355354964733124</right_val></_></_>
        <_>
          <_>
            <feature>
              <rects>
                <_>
                  22 0 2 14 -1.</_>
                <_>
                  22 7 2 7 2.</_></rects>
              <tilted>0</tilted></feature>
            <threshold>-2.1142850164324045e-003</threshold>
            <left_val>0.2714932858943939</left_val>
            <right_val>-0.2078865021467209</right_val></_></_>
        <_>
          <_>
            <feature>
              <rects>
                <_>
                  4 0 4 4 -1.</_>
                <_>
                  5 1 2 4 2.</_></rects>
              <tilted>1</tilted></feature>
            <threshold>-0.0153199704363942</threshold>
            <left_val>0.6479414105415344</left_val>
            <right_val>-0.4457061886787415</right_val></_></_></trees>
      <stage_threshold>-1.4572440385818481</stage_threshold>
      <parent>2</parent>
      <next>-1</next></_>
    <_>
      <trees>
        <_>
          <_>
            <feature>
              <rects>
                <_>
                  12 4 3 12 -1.</_>
                <_>
                  9 7 3 6 2.</_></rects>
              <tilted>1</tilted></feature>
            <threshold>0.1055774986743927</threshold>
            <left_val>-0.6673532128334045</left_val>
            <right_val>0.8596727252006531</right_val></_></_>
        <_>
          <_>
            <feature>
              <rects>
                <_>
                  7 16 14 6 -1.</_>
                <_>
                  7 19 14 3 2.</_></rects>
              <tilted>0</tilted></feature>
            <threshold>-1.9454630091786385e-003</threshold>
            <left_val>0.3116520047187805</left_val>
            <right_val>-0.8024700284004211</right_val></_></_>
        <_>
          <_>
            <feature>
              <rects>
                <_>
                  10 7 3 8 -1.</_>
                <_>
                  10 9 3 4 2.</_></rects>
              <tilted>0</tilted></feature>
            <threshold>3.9285267703235149e-003</threshold>
            <left_val>-0.6812351942062378</left_val>
            <right_val>0.4333964884281158</right_val></_></_>
        <_>
          <_>
            <feature>
              <rects>
                <_>
                  1 0 23 8 -1.</_>
                <_>
                  1 2 23 4 2.</_></rects>
              <tilted>0</tilted></feature>
            <threshold>-0.0271589607000351</threshold>
            <left_val>0.2955231070518494</left_val>
            <right_val>-0.7655637264251709</right_val></_></_>
        <_>
          <_>
            <feature>
              <rects>
                <_>
                  0 6 22 14 -1.</_>
                <_>
                  11 6 11 14 2.</_></rects>
              <tilted>0</tilted></feature>
            <threshold>-0.3085488975048065</threshold>
            <left_val>0.6362457275390625</left_val>
            <right_val>-0.4442937076091766</right_val></_></_>
        <_>
          <_>
            <feature>
              <rects>
                <_>
                  9 15 9 4 -1.</_>
                <_>
                  12 15 3 4 3.</_></rects>
              <tilted>0</tilted></feature>
            <threshold>0.0374941788613796</threshold>
            <left_val>-0.1268396973609924</left_val>
            <right_val>0.7420130968093872</right_val></_></_>
        <_>
          <_>
            <feature>
              <rects>
                <_>
                  0 16 6 8 -1.</_>
                <_>
                  0 16 3 4 2.</_>
                <_>
                  3 20 3 4 2.</_></rects>
              <tilted>0</tilted></feature>
            <threshold>-0.0148928398266435</threshold>
            <left_val>0.6186028718948364</left_val>
            <right_val>-0.4235033988952637</right_val></_></_>
        <_>
          <_>
            <feature>
              <rects>
                <_>
                  2 6 22 16 -1.</_>
                <_>
                  2 14 22 8 2.</_></rects>
              <tilted>0</tilted></feature>
            <threshold>-0.0425982512533665</threshold>
            <left_val>0.3265953063964844</left_val>
            <right_val>-0.7755287289619446</right_val></_></_></trees>
      <stage_threshold>-1.4689630270004272</stage_threshold>
      <parent>3</parent>
      <next>-1</next></_>
    <_>
      <trees>
        <_>
          <_>
            <feature>
              <rects>
                <_>
                  1 5 12 16 -1.</_>
                <_>
                  4 5 6 16 2.</_></rects>
              <tilted>0</tilted></feature>
            <threshold>0.2031261026859283</threshold>
            <left_val>-0.7047265172004700</left_val>
            <right_val>0.7932472229003906</right_val></_></_>
        <_>
          <_>
            <feature>
              <rects>
                <_>
                  6 2 15 14 -1.</_>
                <_>
                  6 9 15 7 2.</_></rects>
              <tilted>0</tilted></feature>
            <threshold>0.0164624396711588</threshold>
            <left_val>-0.8367794156074524</left_val>
            <right_val>0.3068636953830719</right_val></_></_>
        <_>
          <_>
            <feature>
              <rects>
                <_>
                  1 0 7 2 -1.</_>
                <_>
                  1 1 7 1 2.</_></rects>
              <tilted>0</tilted></feature>
            <threshold>-1.7209029756486416e-003</threshold>
            <left_val>0.4152494966983795</left_val>
            <right_val>-0.7597721219062805</right_val></_></_>
        <_>
          <_>
            <feature>
              <rects>
                <_>
                  6 6 12 3 -1.</_>
                <_>
                  10 6 4 3 3.</_></rects>
              <tilted>0</tilted></feature>
            <threshold>-0.0330808088183403</threshold>
            <left_val>0.4363324940204620</left_val>
            <right_val>-0.6424401998519898</right_val></_></_>
        <_>
          <_>
            <feature>
              <rects>
                <_>
                  0 8 24 6 -1.</_>
                <_>
                  12 8 12 6 2.</_></rects>
              <tilted>0</tilted></feature>
            <threshold>-0.1529995054006577</threshold>
            <left_val>0.5450466275215149</left_val>
            <right_val>-0.4909830987453461</right_val></_></_>
        <_>
          <_>
            <feature>
              <rects>
                <_>
                  1 19 23 4 -1.</_>
                <_>
                  1 20 23 2 2.</_></rects>
              <tilted>0</tilted></feature>
            <threshold>-4.5666699297726154e-003</threshold>
            <left_val>0.3419545888900757</left_val>
            <right_val>-0.7909504175186157</right_val></_></_>
        <_>
          <_>
            <feature>
              <rects>
                <_>
                  1 16 4 8 -1.</_>
                <_>
                  1 16 2 4 2.</_>
                <_>
                  3 20 2 4 2.</_></rects>
              <tilted>0</tilted></feature>
            <threshold>-0.0170983597636223</threshold>
            <left_val>0.7195767760276794</left_val>
            <right_val>-0.3631140887737274</right_val></_></_></trees>
      <stage_threshold>-1.2761880159378052</stage_threshold>
      <parent>4</parent>
      <next>-1</next></_>
    <_>
      <trees>
        <_>
          <_>
            <feature>
              <rects>
                <_>
                  8 6 12 5 -1.</_>
                <_>
                  8 6 6 5 2.</_></rects>
              <tilted>1</tilted></feature>
            <threshold>0.2189756035804749</threshold>
            <left_val>-0.6132009029388428</left_val>
            <right_val>0.8087658882141113</right_val></_></_>
        <_>
          <_>
            <feature>
              <rects>
                <_>
                  20 5 4 15 -1.</_>
                <_>
                  21 5 2 15 2.</_></rects>
              <tilted>0</tilted></feature>
            <threshold>-0.0112501299008727</threshold>
            <left_val>0.6651210784912109</left_val>
            <right_val>-0.3716629147529602</right_val></_></_>
        <_>
          <_>
            <feature>
              <rects>
                <_>
                  0 5 4 17 -1.</_>
                <_>
                  1 5 2 17 2.</_></rects>
              <tilted>0</tilted></feature>
            <threshold>-0.0207743290811777</threshold>
            <left_val>0.6722916960716248</left_val>
            <right_val>-0.4227539002895355</right_val></_></_>
        <_>
          <_>
            <feature>
              <rects>
                <_>
                  10 18 9 4 -1.</_>
                <_>
                  10 20 9 2 2.</_></rects>
              <tilted>0</tilted></feature>
            <threshold>5.6735537946224213e-003</threshold>
            <left_val>0.1060898005962372</left_val>
            <right_val>-0.4613682031631470</right_val></_></_>
        <_>
          <_>
            <feature>
              <rects>
                <_>
                  11 4 2 8 -1.</_>
                <_>
                  11 6 2 4 2.</_></rects>
              <tilted>0</tilted></feature>
            <threshold>-1.2390679330565035e-004</threshold>
            <left_val>0.3666779994964600</left_val>
            <right_val>-0.6385595798492432</right_val></_></_>
        <_>
          <_>
            <feature>
              <rects>
                <_>
                  14 11 6 12 -1.</_>
                <_>
                  14 15 6 4 3.</_></rects>
              <tilted>0</tilted></feature>
            <threshold>-0.0464619398117065</threshold>
            <left_val>-0.9906417131423950</left_val>
            <right_val>0.0704920068383217</right_val></_></_>
        <_>
          <_>
            <feature>
              <rects>
                <_>
                  5 17 10 6 -1.</_>
                <_>
                  5 17 5 3 2.</_>
                <_>
                  10 20 5 3 2.</_></rects>
              <tilted>0</tilted></feature>
            <threshold>0.0171153992414474</threshold>
            <left_val>-0.4832350015640259</left_val>
            <right_val>0.4509342014789581</right_val></_></_>
        <_>
          <_>
            <feature>
              <rects>
                <_>
                  8 5 12 16 -1.</_>
                <_>
                  12 5 4 16 3.</_></rects>
              <tilted>0</tilted></feature>
            <threshold>0.1535136997699738</threshold>
            <left_val>-0.1573505997657776</left_val>
            <right_val>0.8610829710960388</right_val></_></_>
        <_>
          <_>
            <feature>
              <rects>
                <_>
                  2 3 15 6 -1.</_>
                <_>
                  2 6 15 3 2.</_></rects>
              <tilted>0</tilted></feature>
            <threshold>0.0294932592660189</threshold>
            <left_val>-0.6407567262649536</left_val>
            <right_val>0.4063583016395569</right_val></_></_></trees>
      <stage_threshold>-1.1696540117263794</stage_threshold>
      <parent>5</parent>
      <next>-1</next></_>
    <_>
      <trees>
        <_>
          <_>
            <feature>
              <rects>
                <_>
                  5 5 10 15 -1.</_>
                <_>
                  10 5 5 15 2.</_></rects>
              <tilted>0</tilted></feature>
            <threshold>-0.2416958957910538</threshold>
            <left_val>0.7730044126510620</left_val>
            <right_val>-0.6408256888389587</right_val></_></_>
        <_>
          <_>
            <feature>
              <rects>
                <_>
                  10 10 4 8 -1.</_>
                <_>
                  12 10 2 4 2.</_>
                <_>
                  10 14 2 4 2.</_></rects>
              <tilted>0</tilted></feature>
            <threshold>-8.7288646027445793e-003</threshold>
            <left_val>0.5581064224243164</left_val>
            <right_val>-0.4701273143291473</right_val></_></_>
        <_>
          <_>
            <feature>
              <rects>
                <_>
                  1 0 21 6 -1.</_>
                <_>
                  1 2 21 2 3.</_></rects>
              <tilted>0</tilted></feature>
            <threshold>-0.0569708012044430</threshold>
            <left_val>0.5141236186027527</left_val>
            <right_val>-0.4681951999664307</right_val></_></_>
        <_>
          <_>
            <feature>
              <rects>
                <_>
                  22 1 2 14 -1.</_>
                <_>
                  22 8 2 7 2.</_></rects>
              <tilted>0</tilted></feature>
            <threshold>0.0114164501428604</threshold>
            <left_val>0.1195641010999680</left_val>
            <right_val>-0.6926559805870056</right_val></_></_>
        <_>
          <_>
            <feature>
              <rects>
                <_>
                  0 1 2 14 -1.</_>
                <_>
                  0 8 2 7 2.</_></rects>
              <tilted>0</tilted></feature>
            <threshold>1.8589349929243326e-003</threshold>
            <left_val>0.3498434126377106</left_val>
            <right_val>-0.6546217799186707</right_val></_></_>
        <_>
          <_>
            <feature>
              <rects>
                <_>
                  5 13 15 10 -1.</_>
                <_>
                  5 18 15 5 2.</_></rects>
              <tilted>0</tilted></feature>
            <threshold>-0.0567702390253544</threshold>
            <left_val>0.2813596129417419</left_val>
            <right_val>-0.6053351163864136</right_val></_></_></trees>
      <stage_threshold>-0.8505275845527649</stage_threshold>
      <parent>6</parent>
      <next>-1</next></_>
    <_>
      <trees>
        <_>
          <_>
            <feature>
              <rects>
                <_>
                  1 5 12 15 -1.</_>
                <_>
                  4 5 6 15 2.</_></rects>
              <tilted>0</tilted></feature>
            <threshold>0.2163556963205338</threshold>
            <left_val>-0.6516429781913757</left_val>
            <right_val>0.6966739892959595</right_val></_></_>
        <_>
          <_>
            <feature>
              <rects>
                <_>
                  21 3 3 17 -1.</_>
                <_>
                  22 3 1 17 3.</_></rects>
              <tilted>0</tilted></feature>
            <threshold>-0.0130954096093774</threshold>
            <left_val>0.6899439096450806</left_val>
            <right_val>-0.2594802081584930</right_val></_></_>
        <_>
          <_>
            <feature>
              <rects>
                <_>
                  2 3 5 16 -1.</_>
                <_>
                  2 11 5 8 2.</_></rects>
              <tilted>0</tilted></feature>
            <threshold>-0.0129543598741293</threshold>
            <left_val>-0.8516340851783752</left_val>
            <right_val>0.2635231018066406</right_val></_></_>
        <_>
          <_>
            <feature>
              <rects>
                <_>
                  2 10 20 6 -1.</_>
                <_>
                  2 13 20 3 2.</_></rects>
              <tilted>0</tilted></feature>
            <threshold>-3.3877710811793804e-003</threshold>
            <left_val>0.2834408879280090</left_val>
            <right_val>-0.6956850886344910</right_val></_></_>
        <_>
          <_>
            <feature>
              <rects>
                <_>
                  0 1 3 19 -1.</_>
                <_>
                  1 1 1 19 3.</_></rects>
              <tilted>0</tilted></feature>
            <threshold>-0.0230002198368311</threshold>
            <left_val>0.6821998953819275</left_val>
            <right_val>-0.3058354854583740</right_val></_></_>
        <_>
          <_>
            <feature>
              <rects>
                <_>
                  4 1 16 3 -1.</_>
                <_>
                  8 1 8 3 2.</_></rects>
              <tilted>0</tilted></feature>
            <threshold>-9.7284670919179916e-003</threshold>
            <left_val>-0.7343822121620178</left_val>
            <right_val>0.3033568859100342</right_val></_></_>
        <_>
          <_>
            <feature>
              <rects>
                <_>
                  0 2 24 1 -1.</_>
                <_>
                  8 2 8 1 3.</_></rects>
              <tilted>0</tilted></feature>
            <threshold>1.8881800351664424e-003</threshold>
            <left_val>0.2247737050056458</left_val>
            <right_val>-0.8958020806312561</right_val></_></_></trees>
      <stage_threshold>-1.1796029806137085</stage_threshold>
      <parent>7</parent>
      <next>-1</next></_>
    <_>
      <trees>
        <_>
          <_>
            <feature>
              <rects>
                <_>
                  5 2 12 5 -1.</_>
                <_>
                  8 5 6 5 2.</_></rects>
              <tilted>1</tilted></feature>
            <threshold>0.1792189925909042</threshold>
            <left_val>-0.5280674099922180</left_val>
            <right_val>0.6895933151245117</right_val></_></_>
        <_>
          <_>
            <feature>
              <rects>
                <_>
                  13 4 4 4 -1.</_>
                <_>
                  12 5 4 2 2.</_></rects>
              <tilted>1</tilted></feature>
            <threshold>9.7496360540390015e-003</threshold>
            <left_val>0.0559883713722229</left_val>
            <right_val>-0.7031422257423401</right_val></_></_>
        <_>
          <_>
            <feature>
              <rects>
                <_>
                  11 4 4 4 -1.</_>
                <_>
                  12 5 2 4 2.</_></rects>
              <tilted>1</tilted></feature>
            <threshold>-6.6021019592881203e-003</threshold>
            <left_val>0.5395507812500000</left_val>
            <right_val>-0.4619244933128357</right_val></_></_>
        <_>
          <_>
            <feature>
              <rects>
                <_>
                  3 1 18 2 -1.</_>
                <_>
                  9 1 6 2 3.</_></rects>
              <tilted>0</tilted></feature>
            <threshold>-0.0103248003870249</threshold>
            <left_val>-0.7744659781455994</left_val>
            <right_val>0.2599253058433533</right_val></_></_>
        <_>
          <_>
            <feature>
              <rects>
                <_>
                  2 0 18 6 -1.</_>
                <_>
                  8 2 6 2 9.</_></rects>
              <tilted>0</tilted></feature>
            <threshold>-0.0251040905714035</threshold>
            <left_val>0.2930007874965668</left_val>
            <right_val>-0.7021116018295288</right_val></_></_>
        <_>
          <_>
            <feature>
              <rects>
                <_>
                  16 14 8 10 -1.</_>
                <_>
                  20 14 4 5 2.</_>
                <_>
                  16 19 4 5 2.</_></rects>
              <tilted>0</tilted></feature>
            <threshold>0.0123659903183579</threshold>
            <left_val>-0.0376271605491638</left_val>
            <right_val>-0.5611696243286133</right_val></_></_>
        <_>
          <_>
            <feature>
              <rects>
                <_>
                  2 16 4 8 -1.</_>
                <_>
                  2 16 2 4 2.</_>
                <_>
                  4 20 2 4 2.</_></rects>
              <tilted>0</tilted></feature>
            <threshold>-0.0143920304253697</threshold>
            <left_val>0.5635225772857666</left_val>
            <right_val>-0.3473787903785706</right_val></_></_>
        <_>
          <_>
            <feature>
              <rects>
                <_>
                  22 8 2 12 -1.</_>
                <_>
                  22 11 2 6 2.</_></rects>
              <tilted>0</tilted></feature>
            <threshold>7.8848171979188919e-003</threshold>
            <left_val>0.1397372931241989</left_val>
            <right_val>-0.7885025143623352</right_val></_></_>
        <_>
          <_>
            <feature>
              <rects>
                <_>
                  1 11 12 4 -1.</_>
                <_>
                  1 11 6 2 2.</_>
                <_>
                  7 13 6 2 2.</_></rects>
              <tilted>0</tilted></feature>
            <threshold>2.0442490931600332e-003</threshold>
            <left_val>0.2133744060993195</left_val>
            <right_val>-0.7625250220298767</right_val></_></_>
        <_>
          <_>
            <feature>
              <rects>
                <_>
                  15 13 6 9 -1.</_>
                <_>
                  15 16 6 3 3.</_></rects>
              <tilted>0</tilted></feature>
            <threshold>-0.0110693704336882</threshold>
            <left_val>-0.8035457134246826</left_val>
            <right_val>0.0234966203570366</right_val></_></_>
        <_>
          <_>
            <feature>
              <rects>
                <_>
                  11 3 8 4 -1.</_>
                <_>
                  13 5 4 4 2.</_></rects>
              <tilted>1</tilted></feature>
            <threshold>1.3973519671708345e-003</threshold>
            <left_val>0.2504486143589020</left_val>
            <right_val>-0.6575263142585754</right_val></_></_></trees>
      <stage_threshold>-1.1341389417648315</stage_threshold>
      <parent>8</parent>
      <next>-1</next></_></stages></myfacedetector>
</opencv_storage>
